0.087000
1.332023
1.238188
1.430710
0.987790
1.154101
1.424816
1.153377
1.345937
1.367106
1.381783
1.538197
1.374723
1.249918
1.362633
1.234755
1.173936
1.069645
1.131530
1.007809
1.040846
1.164524
1.404216
1.398908
1.360049
1.453865
1.509722
1.257999
1.445967
-0.060029
-0.052928
-0.060436
-0.056214
-0.077246
-0.085143
-0.022846
-0.028440
0.099007
-0.014681
-0.052965
0.067998
0.003652
0.057928
-0.065509
0.127326
0.014833
-0.018085
0.056793
-0.029725
0.086846
0.011207
-0.049618
-0.016429
0.043728
-0.040967
-0.171827
-0.063346
-0.025438
-0.063835
-0.033712
-0.025393
-0.076116
-0.039622
-0.042331
-0.125444
-0.051424
-0.168552
-0.084956
-0.093551
-0.059126
-0.102066
-0.043791
-0.069001
-0.028111
-0.027680
-0.027812
0.045871
-0.022237
0.030515
0.078354
0.124622
0.027926
0.053741
0.055171
0.037372
0.159030
0.180718
0.169987
0.131317
0.131586
0.144169
0.089192
-0.068667
0.034233
-0.020849
-0.119022
0.022331
-0.078811
-0.027977
-0.068632
-0.027285
-0.017010
-0.013287
-0.058837
0.009712
0.003772
0.170228
0.137699
0.185553
0.231895
0.139796
0.157620
0.107254
-0.007558
-0.070734
-0.012935
-0.058320
-0.048073
-0.085960
-0.059259
0.042741
0.019353
-0.004454
-0.060537
0.011526
-0.015916
-0.037396
0.088665
-0.072712
-0.049651
-0.078808
0.022967
-0.067185
0.060316
0.023280
-0.027607
0.056659
0.024397
0.024262
0.073374
0.021407
0.088648
-0.061425
0.023201
0.024595
0.058308
-0.076397
-0.040508
0.045246
-0.079292
-0.058186
0.066871
-0.080516
-0.040857
0.076090
0.026557
0.025290
0.046601
-0.066962
-0.064294
0.030767
0.071560
0.261314
0.031451
0.027934
-0.071955
-0.061489
0.024431
0.028758
0.045195
0.043082
0.059871
0.055353
-0.043888
-0.026110
-0.048745
0.155234
-0.095171
0.043538
0.075361
0.073302
0.088616
-0.065195
0.033090
0.053670
-0.091956
-0.030108
0.028262
-0.085991
0.042068
0.046806
0.074174
-0.085435
0.094480
0.029162
0.056975
0.076154
-0.041576
-0.068734
0.051181
0.046095
0.072982
-0.092000
0.066016
-0.091538
-0.036446
0.096006
0.078868
-0.079881
0.039980
0.036615
0.026987
0.036412
-0.048992
-0.058044
0.095004
-0.053238
0.064244
0.027400
-0.055241
-0.040026
0.040356
0.032880
-0.098856
-0.054570
-0.079219
0.055495
0.081899
-0.067345
0.028420
-0.043916
-0.073342
-0.042698
0.091215
0.058843
0.082926
-0.085064
0.042581
-0.028095
0.061618
0.074609
-0.089482
0.502387
0.039606
-0.038672
0.095878
0.027693
0.043536
0.027693
0.028829
0.079436
0.027020
0.026006
-39.252909
-1.069164
-124.728353
-118.953300
-4.853445
-14.263186
-23.054856
2.424012
18.609033
-28.639205
-23.999825
-11.203292
12.801640
10.126226
2.363627
-1.861052
-13.241789
12.138900
-39.068208
-123.705316
-1163.360591
-139.461684
21.105976
-1.585733
-15.591215
2.643375
10.155248
2.004696
-17.249970
-15.701595
28.361089
26.478036
43.595387
22.456071
-1.064061
26.763940
-39.176740
-0.019027
-125.010075
-80.784431
21.890182
-23.284452
-19.650132
10.903628
13.736406
5.340043
-24.440297
-15.532931
30.867181
9.900835
38.882448
-6.463177
11.224808
-2.110561
-0.046483
-1.083125
-1040.016879
-145.993414
-6.890155
6.494301
-12.539082
-0.559382
-3.673489
10.364609
-1.217053
15.017613
8.043937
14.641754
15.008301
-9.445226
28.783967
23.817815
-0.045439
-333.622705
-0.076745
-157.113438
20.798383
7.133470
-23.445492
-12.633455
23.290479
10.359397
-15.167499
26.135074
-19.706317
-14.838013
-3.238557
-4.610463
-49.976411
18.771048
-0.055594
-333.650776
0.026969
-54.984812
16.872711
15.886975
-5.773222
-5.664586
3.600894
10.644498
-0.049895
18.710915
-19.612930
-13.283103
-0.102975
8.046674
-34.814128
14.777547
-0.086815
-210.000629
-1040.034581
-52.910470
16.720988
11.213348
-3.010506
4.437937
-4.113289
53.855826
0.436559
46.025036
-28.559389
-10.926468
12.844800
-39.143892
12.127984
5.715112
-39.257789
-122.468572
-1164.872700
-106.147447
32.272464
-2.875294
-4.145429
12.197872
1.143799
20.979901
-5.977549
-6.896166
17.411791
7.175087
41.645720
4.249712
-9.892389
13.414671
-39.172361
-211.047809
-124.774260
-119.073816
-11.486029
-10.788975
-21.609956
-1.721927
17.713434
-18.864119
-19.124921
9.532848
-18.116434
-6.158054
-9.834566
-16.177800
-19.589241
2.255475
-39.152631
-333.613880
-1164.928655
-176.418280
-13.109385
8.241175
-4.212291
0.562135
-5.765671
3.209204
-1.914824
8.356186
-24.384362
7.827920
6.618157
4.093289
-1.974690
14.747624
-39.105851
-0.983761
-1164.743462
-91.723096
9.778805
15.337182
16.933850
13.655614
-19.926963
-15.326224
16.610808
-19.552466
31.597719
18.422677
48.159768
2.336490
23.081045
20.413775
0.066504
-122.450690
-1040.081716
-113.273380
12.892630
30.679145
17.878286
6.371364
-20.800200
2.756839
15.033283
-5.301035
16.397993
20.468216
33.319671
15.410926
18.231720
29.960741
-39.167288
-211.090017
-124.769053
-66.752729
-24.009541
5.479119
-4.903221
-4.366543
0.628984
-18.234656
-6.976921
2.245754
-15.076696
-4.958333
-3.002598
4.579335
-4.385620
0.634231
-39.114374
-0.034139
-1164.785539
-71.935319
1.657859
-12.889837
-6.940307
13.623199
-2.816293
11.162762
-6.073971
-3.018786
11.417644
10.086423
26.318621
-12.726855
24.236105
2.046932
-17.847723
-209.921104
-124.741382
-7.675224
21.076770
-0.647273
4.109651
7.272160
4.294941
1.112069
10.811904
7.373961
-4.340562
-23.152132
20.193155
-11.507015
-30.854418
-6.632477
0.059240
-147.034599
-1039.963804
-52.179128
15.578560
25.811474
24.439282
7.499274
-28.147962
26.075377
28.296019
15.309982
-17.739399
-17.921078
22.484067
-16.948228
9.895682
4.708772
-11.632503
-210.996854
-603.175325
-142.816562
-16.376841
-7.174419
-18.368296
-2.303638
8.508523
10.246092
-14.006090
20.491964
-17.146013
7.677774
4.918815
-12.852314
13.653013
2.612641
-39.151232
-333.594425
-1164.667938
-121.929497
14.119105
10.231164
-4.382256
3.671565
-0.658947
9.804078
-0.753930
9.440668
-8.885156
1.332299
26.742207
-3.297947
-13.759783
19.033991
